<?xml version="1.0"?>
<opencv_storage>
<cascade>
  <stageType>BOOST</stageType>
  <featureType>HAAR</featureType>
  <height>24</height>
  <width>24</width>
  <stageParams>
    <boostType>GAB</boostType>
    <minHitRate>9.9500000476837158e-01</minHitRate>
    <maxFalseAlarm>5.0000000000000000e-01</maxFalseAlarm>
    <weightTrimRate>9.4999998807907104e-01</weightTrimRate>
    <maxDepth>1</maxDepth>
    <maxWeakCount>100</maxWeakCount></stageParams>
  <featureParams>
    <maxCatCount>0</maxCatCount>
    <featSize>1</featSize>
    <mode>BASIC</mode></featureParams>
  <stageNum>15</stageNum>
  <stages>
    <!-- stage 0 -->
    <_>
      <maxWeakCount>3</maxWeakCount>
      <stageThreshold>-1.6263197660446167e+00</stageThreshold>
      <weakClassifiers>
        <_>
          <internalNodes>
            0 -1 4 -4.6338438987731934e-02</internalNodes>
          <leafValues>
            6.2962961196899414e-01 -9.7420632839202881e-01</leafValues></_>
        <_>
          <internalNodes>
            0 -1 44 2.7282824739813805e-02</internalNodes>
          <leafValues>
            -9.8548454046249390e-01 3.1551697850227356e-01</leafValues></_>
        <_>
          <internalNodes>
            0 -1 42 2.3626869544386864e-02</internalNodes>
          <leafValues>
            -9.4449472427368164e-01 3.3337110280990601e-01</leafValues></_></weakClassifiers></_>
    <!-- stage 1 -->
    <_>
      <maxWeakCount>3</maxWeakCount>
      <stageThreshold>-1.7285877466201782e+00</stageThreshold>
      <weakClassifiers>
        <_>
          <internalNodes>
            0 -1 5 -7.7170863747596741e-02</internalNodes>
          <leafValues>
            8.8235294818878174e-01 -9.6267187595367432e-01</leafValues></_>
        <_>
          <internalNodes>
            0 -1 0 -3.1620830297470093e-01</internalNodes>
          <leafValues>
            3.4152045845985413e-01 -9.4366151094436646e-01</leafValues></_>
        <_>
          <internalNodes>
            0 -1 32 1.9796585547737777e-05</internalNodes>
          <leafValues>
            -9.7221148014068604e-01 1.7774564027786255e-01</leafValues></_></weakClassifiers></_>
    <!-- stage 2 -->
    <_>
      <maxWeakCount>3</maxWeakCount>
      <stageThreshold>-1.6297104358673096e+00</stageThreshold>
      <weakClassifiers>
        <_>
          <internalNodes>
            0 -1 23 -7.5335837900638580e-02</internalNodes>
          <leafValues>
            5.2380955219268799e-01 -9.6252465248107910e-01</leafValues></_>
        <_>
          <internalNodes>
            0 -1 34 2.4764204025268555e-01</internalNodes>
          <leafValues>
            -9.5740437507629395e-01 1.3979160785675049e-01</leafValues></_>
        <_>
          <internalNodes>
            0 -1 11 -4.1799925267696381e-02</internalNodes>
          <leafValues>
            5.7864469289779663e-01 -8.0697739124298096e-01</leafValues></_></weakClassifiers></_>
    <!-- stage 3 -->
    <_>
      <maxWeakCount>4</maxWeakCount>
      <stageThreshold>-2.3253719806671143e+00</stageThreshold>
      <weakClassifiers>
        <_>
          <internalNodes>
            0 -1 7 -2.5136124342679977e-02</internalNodes>
          <leafValues>
            6.2500000000000000e-01 -9.5682042837142944e-01</leafValues></_>
        <_>
          <internalNodes>
            0 -1 43 -5.1776818931102753e-02</internalNodes>
          <leafValues>
            4.0208056569099426e-01 -9.0550953149795532e-01</leafValues></_>
        <_>
          <internalNodes>
            0 -1 32 3.7250109016895294e-04</internalNodes>
          <leafValues>
            3.9861854910850525e-01 -8.7597340345382690e-01</leafValues></_>
        <_>
          <internalNodes>
            0 -1 36 3.0551294912584126e-05</internalNodes>
          <leafValues>
            -9.7008216381072998e-01 4.1293126344680786e-01</leafValues></_></weakClassifiers></_>
    <!-- stage 4 -->
    <_>
      <maxWeakCount>3</maxWeakCount>
      <stageThreshold>-1.6377739906311035e+00</stageThreshold>
      <weakClassifiers>
        <_>
          <internalNodes>
            0 -1 15 -8.2076564431190491e-02</internalNodes>
          <leafValues>
            1.0526315867900848e-01 -9.7191572189331055e-01</leafValues></_>
        <_>
          <internalNodes>
            0 -1 36 3.8184120785444975e-04</internalNodes>
          <leafValues>
            2.0955501496791840e-01 -9.6605783700942993e-01</leafValues></_>
        <_>
          <internalNodes>
            0 -1 45 1.6955379396677017e-02</internalNodes>
          <leafValues>
            -8.7541329860687256e-01 3.0599534511566162e-01</leafValues></_></weakClassifiers></_>
    <!-- stage 5 -->
    <_>
      <maxWeakCount>3</maxWeakCount>
      <stageThreshold>-1.7828865051269531e+00</stageThreshold>
      <weakClassifiers>
        <_>
          <internalNodes>
            0 -1 20 -2.6589505374431610e-02</internalNodes>
          <leafValues>
            2.3255813866853714e-02 -9.7379034757614136e-01</leafValues></_>
        <_>
          <internalNodes>
            0 -1 38 -2.9596202075481415e-03</internalNodes>
          <leafValues>
            4.4631418585777283e-01 -8.5726070404052734e-01</leafValues></_>
        <_>
          <internalNodes>
            0 -1 8 4.8664310015738010e-03</internalNodes>
          <leafValues>
            -9.4888162612915039e-01 3.2376670837402344e-01</leafValues></_></weakClassifiers></_>
    <!-- stage 6 -->
    <_>
      <maxWeakCount>4</maxWeakCount>
      <stageThreshold>-2.1238851547241211e+00</stageThreshold>
      <weakClassifiers>
        <_>
          <internalNodes>
            0 -1 12 -1.6830043867230415e-02</internalNodes>
          <leafValues>
            4.8148149251937866e-01 -9.7023808956146240e-01</leafValues></_>
        <_>
          <internalNodes>
            0 -1 27 -1.2826684862375259e-02</internalNodes>
          <leafValues>
            7.6845544576644897e-01 -8.7377846240997314e-01</leafValues></_>
        <_>
          <internalNodes>
            0 -1 37 1.0602330788969994e-02</internalNodes>
          <leafValues>
            -8.2820719480514526e-01 6.8094992637634277e-01</leafValues></_>
        <_>
          <internalNodes>
            0 -1 1 -7.5595177710056305e-02</internalNodes>
          <leafValues>
            5.4833847284317017e-01 -9.1598063707351685e-01</leafValues></_></weakClassifiers></_>
    <!-- stage 7 -->
    <_>
      <maxWeakCount>4</maxWeakCount>
      <stageThreshold>-2.0877625942230225e+00</stageThreshold>
      <weakClassifiers>
        <_>
          <internalNodes>
            0 -1 25 -6.9950096309185028e-02</internalNodes>
          <leafValues>
            3.0434781312942505e-01 -9.6047431230545044e-01</leafValues></_>
        <_>
          <internalNodes>
            0 -1 9 -4.7416456043720245e-02</internalNodes>
          <leafValues>
            4.6567466855049133e-01 -8.5891056060791016e-01</leafValues></_>
        <_>
          <internalNodes>
            0 -1 28 -5.9590823948383331e-03</internalNodes>
          <leafValues>
            7.1018207073211670e-01 -7.1552449464797974e-01</leafValues></_>
        <_>
          <internalNodes>
            0 -1 30 7.0399037213064730e-05</internalNodes>
          <leafValues>
            -9.7752898931503296e-01 4.4714668393135071e-01</leafValues></_></weakClassifiers></_>
    <!-- stage 8 -->
    <_>
      <maxWeakCount>4</maxWeakCount>
      <stageThreshold>-2.1540267467498779e+00</stageThreshold>
      <weakClassifiers>
        <_>
          <internalNodes>
            0 -1 26 -8.8034778833389282e-02</internalNodes>
          <leafValues>
            -2.4046056034494034e-17 -9.5829194784164429e-01</leafValues></_>
        <_>
          <internalNodes>
            0 -1 9 -4.8266112804412842e-02</internalNodes>
          <leafValues>
            3.6384347081184387e-01 -8.4245073795318604e-01</leafValues></_>
        <_>
          <internalNodes>
            0 -1 19 -4.4618528336286545e-03</internalNodes>
          <leafValues>
            4.3004879355430603e-01 -7.1551966667175293e-01</leafValues></_>
        <_>
          <internalNodes>
            0 -1 33 2.1615604055114090e-04</internalNodes>
          <leafValues>
            -9.6908420324325562e-01 3.6223551630973816e-01</leafValues></_></weakClassifiers></_>
    <!-- stage 9 -->
    <_>
      <maxWeakCount>3</maxWeakCount>
      <stageThreshold>-1.5220304727554321e+00</stageThreshold>
      <weakClassifiers>
        <_>
          <internalNodes>
            0 -1 3 -1.4061244204640388e-02</internalNodes>
          <leafValues>
            1. -9.4552528858184814e-01</leafValues></_>
        <_>
          <internalNodes>
            0 -1 35 -1.7222862690687180e-02</internalNodes>
          <leafValues>
            3.6724051833152771e-01 -8.3436447381973267e-01</leafValues></_>
        <_>
          <internalNodes>
            0 -1 31 1.6031462699174881e-02</internalNodes>
          <leafValues>
            -9.4374573230743408e-01 3.0632379651069641e-01</leafValues></_></weakClassifiers></_>
    <!-- stage 10 -->
    <_>
      <maxWeakCount>3</maxWeakCount>
      <stageThreshold>-1.6068371534347534e+00</stageThreshold>
      <weakClassifiers>
        <_>
          <internalNodes>
            0 -1 2 -8.3571381866931915e-02</internalNodes>
          <leafValues>
            6.0000002384185791e-01 -9.4731706380844116e-01</leafValues></_>
        <_>
          <internalNodes>
            0 -1 13 -4.5814253389835358e-02</internalNodes>
          <leafValues>
            4.6771204471588135e-01 -8.5094481706619263e-01</leafValues></_>
        <_>
          <internalNodes>
            0 -1 29 1.4218350406736135e-04</internalNodes>
          <leafValues>
            -9.0500664710998535e-01 1.9142468273639679e-01</leafValues></_></weakClassifiers></_>
    <!-- stage 11 -->
    <_>
      <maxWeakCount>3</maxWeakCount>
      <stageThreshold>-1.7656973600387573e+00</stageThreshold>
      <weakClassifiers>
        <_>
          <internalNodes>
            0 -1 40 2.7392817661166191e-02</internalNodes>
          <leafValues>
            -9.6200001239776611e-01 -8.5714288055896759e-02</leafValues></_>
        <_>
          <internalNodes>
            0 -1 14 3.9409897290170193e-03</internalNodes>
          <leafValues>
            -7.9326832294464111e-01 5.5463916063308716e-01</leafValues></_>
        <_>
          <internalNodes>
            0 -1 10 -7.8610396012663841e-03</internalNodes>
          <leafValues>
            2.6571270823478699e-01 -8.8671469688415527e-01</leafValues></_></weakClassifiers></_>
    <!-- stage 12 -->
    <_>
      <maxWeakCount>3</maxWeakCount>
      <stageThreshold>-1.6042437553405762e+00</stageThreshold>
      <weakClassifiers>
        <_>
          <internalNodes>
            0 -1 6 2.8555013239383698e-02</internalNodes>
          <leafValues>
            -9.4552528858184814e-01 1.</leafValues></_>
        <_>
          <internalNodes>
            0 -1 24 -7.0318281650543213e-03</internalNodes>
          <leafValues>
            3.3063310384750366e-01 -8.3372503519058228e-01</leafValues></_>
        <_>
          <internalNodes>
            0 -1 22 -2.1164907142519951e-02</internalNodes>
          <leafValues>
            1.7500656843185425e-01 -9.6306598186492920e-01</leafValues></_></weakClassifiers></_>
    <!-- stage 13 -->
    <_>
      <maxWeakCount>3</maxWeakCount>
      <stageThreshold>-1.6283541917800903e+00</stageThreshold>
      <weakClassifiers>
        <_>
          <internalNodes>
            0 -1 17 2.4221003055572510e-02</internalNodes>
          <leafValues>
            -9.4552528858184814e-01 1.</leafValues></_>
        <_>
          <internalNodes>
            0 -1 16 -1.5201492607593536e-01</internalNodes>
          <leafValues>
            2.0191007852554321e-01 -8.9013463258743286e-01</leafValues></_>
        <_>
          <internalNodes>
            0 -1 39 9.0058601927012205e-05</internalNodes>
          <leafValues>
            -8.8473904132843018e-01 3.2983058691024780e-01</leafValues></_></weakClassifiers></_>
    <!-- stage 14 -->
    <_>
      <maxWeakCount>3</maxWeakCount>
      <stageThreshold>-1.6247748136520386e+00</stageThreshold>
      <weakClassifiers>
        <_>
          <internalNodes>
            0 -1 21 1.6971224918961525e-02</internalNodes>
          <leafValues>
            -9.4552528858184814e-01 1.</leafValues></_>
        <_>
          <internalNodes>
            0 -1 18 2.2226467728614807e-02</internalNodes>
          <leafValues>
            -8.4308898448944092e-01 2.3265282809734344e-01</leafValues></_>
        <_>
          <internalNodes>
            0 -1 41 1.7715767171466723e-05</internalNodes>
          <leafValues>
            -9.1190242767333984e-01 3.0359420180320740e-01</leafValues></_></weakClassifiers></_></stages>
  <features>
    <_>
      <rects>
        <_>
          0 0 24 14 -1.</_>
        <_>
          0 7 24 7 2.</_></rects>
      <tilted>0</tilted></_>
    <_>
      <rects>
        <_>
          0 1 22 8 -1.</_>
        <_>
          0 5 22 4 2.</_></rects>
      <tilted>0</tilted></_>
    <_>
      <rects>
        <_>
          0 2 24 1 -1.</_>
        <_>
          8 2 8 1 3.</_></rects>
      <tilted>0</tilted></_>
    <_>
      <rects>
        <_>
          0 4 4 4 -1.</_>
        <_>
          0 4 2 2 2.</_>
        <_>
          2 6 2 2 2.</_></rects>
      <tilted>0</tilted></_>
    <_>
      <rects>
        <_>
          0 4 21 1 -1.</_>
        <_>
          7 4 7 1 3.</_></rects>
      <tilted>0</tilted></_>
    <_>
      <rects>
        <_>
          0 5 4 16 -1.</_>
        <_>
          2 5 2 16 2.</_></rects>
      <tilted>0</tilted></_>
    <_>
      <rects>
        <_>
          0 6 3 15 -1.</_>
        <_>
          1 6 1 15 3.</_></rects>
      <tilted>0</tilted></_>
    <_>
      <rects>
        <_>
          0 11 2 10 -1.</_>
        <_>
          1 11 1 10 2.</_></rects>
      <tilted>0</tilted></_>
    <_>
      <rects>
        <_>
          0 11 3 10 -1.</_>
        <_>
          0 16 3 5 2.</_></rects>
      <tilted>0</tilted></_>
    <_>
      <rects>
        <_>
          0 12 6 12 -1.</_>
        <_>
          2 12 2 12 3.</_></rects>
      <tilted>0</tilted></_>
    <_>
      <rects>
        <_>
          0 18 12 2 -1.</_>
        <_>
          4 18 4 2 3.</_></rects>
      <tilted>0</tilted></_>
    <_>
      <rects>
        <_>
          1 0 6 8 -1.</_>
        <_>
          4 0 3 8 2.</_></rects>
      <tilted>0</tilted></_>
    <_>
      <rects>
        <_>
          1 0 8 4 -1.</_>
        <_>
          1 0 4 2 2.</_>
        <_>
          5 2 4 2 2.</_></rects>
      <tilted>0</tilted></_>
    <_>
      <rects>
        <_>
          1 0 10 6 -1.</_>
        <_>
          1 0 5 3 2.</_>
        <_>
          6 3 5 3 2.</_></rects>
      <tilted>0</tilted></_>
    <_>
      <rects>
        <_>
          1 6 4 2 -1.</_>
        <_>
          1 6 2 1 2.</_>
        <_>
          3 7 2 1 2.</_></rects>
      <tilted>0</tilted></_>
    <_>
      <rects>
        <_>
          3 0 3 14 -1.</_>
        <_>
          3 7 3 7 2.</_></rects>
      <tilted>0</tilted></_>
    <_>
      <rects>
        <_>
          3 0 8 16 -1.</_>
        <_>
          3 8 8 8 2.</_></rects>
      <tilted>0</tilted></_>
    <_>
      <rects>
        <_>
          3 2 6 4 -1.</_>
        <_>
          3 2 3 2 2.</_>
        <_>
          6 4 3 2 2.</_></rects>
      <tilted>0</tilted></_>
    <_>
      <rects>
        <_>
          3 4 6 6 -1.</_>
        <_>
          3 4 3 3 2.</_>
        <_>
          6 7 3 3 2.</_></rects>
      <tilted>0</tilted></_>
    <_>
      <rects>
        <_>
          3 17 19 3 -1.</_>
        <_>
          3 18 19 1 3.</_></rects>
      <tilted>0</tilted></_>
    <_>
      <rects>
        <_>
          4 0 1 14 -1.</_>
        <_>
          4 7 1 7 2.</_></rects>
      <tilted>0</tilted></_>
    <_>
      <rects>
        <_>
          4 2 4 4 -1.</_>
        <_>
          4 2 2 2 2.</_>
        <_>
          6 4 2 2 2.</_></rects>
      <tilted>0</tilted></_>
    <_>
      <rects>
        <_>
          6 0 16 14 -1.</_>
        <_>
          6 0 8 7 2.</_>
        <_>
          14 7 8 7 2.</_></rects>
      <tilted>0</tilted></_>
    <_>
      <rects>
        <_>
          6 1 12 4 -1.</_>
        <_>
          6 3 12 2 2.</_></rects>
      <tilted>0</tilted></_>
    <_>
      <rects>
        <_>
          7 1 1 6 -1.</_>
        <_>
          7 3 1 2 3.</_></rects>
      <tilted>0</tilted></_>
    <_>
      <rects>
        <_>
          7 1 9 6 -1.</_>
        <_>
          7 3 9 2 3.</_></rects>
      <tilted>0</tilted></_>
    <_>
      <rects>
        <_>
          7 1 11 6 -1.</_>
        <_>
          7 3 11 2 3.</_></rects>
      <tilted>0</tilted></_>
    <_>
      <rects>
        <_>
          7 3 11 3 -1.</_>
        <_>
          7 4 11 1 3.</_></rects>
      <tilted>0</tilted></_>
    <_>
      <rects>
        <_>
          8 9 10 3 -1.</_>
        <_>
          8 10 10 1 3.</_></rects>
      <tilted>0</tilted></_>
    <_>
      <rects>
        <_>
          8 18 1 6 -1.</_>
        <_>
          8 20 1 2 3.</_></rects>
      <tilted>0</tilted></_>
    <_>
      <rects>
        <_>
          8 22 4 1 -1.</_>
        <_>
          10 22 2 1 2.</_></rects>
      <tilted>0</tilted></_>
    <_>
      <rects>
        <_>
          10 9 14 14 -1.</_>
        <_>
          10 9 7 7 2.</_>
        <_>
          17 16 7 7 2.</_></rects>
      <tilted>0</tilted></_>
    <_>
      <rects>
        <_>
          10 10 2 1 -1.</_>
        <_>
          11 10 1 1 2.</_></rects>
      <tilted>0</tilted></_>
    <_>
      <rects>
        <_>
          11 9 2 2 -1.</_>
        <_>
          12 9 1 2 2.</_></rects>
      <tilted>0</tilted></_>
    <_>
      <rects>
        <_>
          12 0 12 24 -1.</_>
        <_>
          18 0 6 24 2.</_></rects>
      <tilted>0</tilted></_>
    <_>
      <rects>
        <_>
          12 1 3 6 -1.</_>
        <_>
          12 3 3 2 3.</_></rects>
      <tilted>0</tilted></_>
    <_>
      <rects>
        <_>
          13 14 2 1 -1.</_>
        <_>
          14 14 1 1 2.</_></rects>
      <tilted>0</tilted></_>
    <_>
      <rects>
        <_>
          14 3 4 9 -1.</_>
        <_>
          14 6 4 3 3.</_></rects>
      <tilted>0</tilted></_>
    <_>
      <rects>
        <_>
          15 3 2 3 -1.</_>
        <_>
          15 4 2 1 3.</_></rects>
      <tilted>0</tilted></_>
    <_>
      <rects>
        <_>
          16 4 1 2 -1.</_>
        <_>
          16 5 1 1 2.</_></rects>
      <tilted>0</tilted></_>
    <_>
      <rects>
        <_>
          17 2 4 6 -1.</_>
        <_>
          19 2 2 6 2.</_></rects>
      <tilted>0</tilted></_>
    <_>
      <rects>
        <_>
          18 14 2 1 -1.</_>
        <_>
          19 14 1 1 2.</_></rects>
      <tilted>0</tilted></_>
    <_>
      <rects>
        <_>
          18 18 6 6 -1.</_>
        <_>
          21 18 3 6 2.</_></rects>
      <tilted>0</tilted></_>
    <_>
      <rects>
        <_>
          19 0 2 16 -1.</_>
        <_>
          19 8 2 8 2.</_></rects>
      <tilted>0</tilted></_>
    <_>
      <rects>
        <_>
          20 0 4 16 -1.</_>
        <_>
          22 0 2 16 2.</_></rects>
      <tilted>0</tilted></_>
    <_>
      <rects>
        <_>
          22 0 2 24 -1.</_>
        <_>
          23 0 1 24 2.</_></rects>
      <tilted>0</tilted></_></features></cascade>
</opencv_storage>
